[[-4.220992116069026, 2.9743267502854778], [4.467209682090658, 0.8995259510774185], [3.6850832767340536, 1.9435201945240594], [-3.134745241459652, 3.147088737607865], [1.1387445443611621, -1.8094282710551601]]
[[4.683285516547605, 0.6480170064315425, 2.6132091083226445, 4.995831935593705, -2.6823519304049115], [-3.316337473885264, 4.396937180440493, 3.6994511906708833, -3.4813774774204873, -1.5872981517505802], [0.2836324796938142, 2.620248747434811, -0.3837460964866177, -3.5425195656643202, 5.660961978909976], [5.004297600803484, 0.28180458578777967, 2.5540269306557257, 4.8790661847941585, -1.2020655450215285], [-4.465926343942734, 1.4833644195514204, 1.0897942553064344, -4.405526321624862, 0.9074665309222151], [2.7171416344561465, -3.8301060114321164, -3.6090325666709235, 3.566003210909, 0.6652622859162272], [3.1449294900228533, -1.9929843822860174, -4.557358935485283, 2.562843842449371, 2.6862170875078406], [-2.5757052628829866, -0.5529417319894798, 3.471791056980825, -2.0579344481363773, -3.0988163840905023], [-1.8260497212632552, 3.9495851484171705, 3.6462980159554745, -1.4687358642284107, -3.6962172157215494], [-4.852283955566239, 1.887375351980364, 1.4194930372494499, -5.000799616641331, 0.8471219216588266]]
[[-5.712390622418209, -4.999240425679466, 1.3877804538907628, -4.001089407428603, 1.8945502067059707, 3.880041419975877, 1.9693213774910832, -5.069845957789009, -5.817669409098815, -3.393743931938877], [-5.0311055619136305, 1.3105049587935427, 0.3142663475242209, -4.831966804054093, 1.9197544425568074, -3.586112189641574, 3.399927395501159, -3.4706023109299706, -2.58150065559835, 1.58691332728983], [-4.249480729233211, 2.1322684609204416, 0.6236281723941605, -4.5104774929098745, 1.1338198937477755, -4.409627132489181, -4.19976860879392, 3.4104861953640424, 3.1385098731969725, 1.0835271554249213], [1.8927243586826277, -3.2148340424300894, -4.652816477159464, 2.9204131085141807, -4.193289280305475, 3.2789561692834446, 1.0108707755681372, -1.6953231227399927, -1.9270855095258697, -3.670946543353013], [0.4824932156007943, 1.9589287786058085, -5.583895448541001, 0.9865875269617561, -3.7507701582966315, -2.237238989070038, -1.3333756178286824, 2.8755250665257748, 4.081761235020176, -5.138003669322918], [2.646935274988135, 1.234444523673017, -1.1676296648878124, -0.4644363994762819, 1.3546467152755175, -2.122413248863816, -3.9443345834201047, 4.4729123944538935, 3.935056835502612, -0.29988244202065373]]