[[0.4033492994217307, -1.181598071686895, 1.1547981165294223, 1.6711549791516094, 0.8332182296075414, 0.2562085900736553, 1.2110603156613686, 0.30455914817070917, 0.7951346604426566, 0.6106922456990658, 1.925970211116157, -1.2047083060129578, -0.5196573929086283, 0.18609255775980668, -1.22681267098599, -1.1604657518644392, -1.6935297561242941, -0.9498885506642598, -1.1540529453394563, -1.2767940304728442, 0.20545621564434172, -0.04067754970918405, 1.7621317498134017, 0.3463974737623654, -1.6346828681021792, -0.8016153585138661, -0.5051982080851256, -0.3628004102496828, -0.4290593347565672, -0.6399993992637576, 0.6567108774455919, 0.11487582360219117, -0.5263255926042263, 0.6416062187435014, 1.2110507877375047, -0.47649652192714453, -0.830085949945703, 0.9680998067062696, -1.2293813804127824, -1.9633318247186966, 0.706867308420893, -1.764740848914989, 0.4016166102755997, 0.3584581332062102, -1.4386445611860281, -0.30472492819090685, -0.6164420220900377, 0.0015417228888790213, -1.5017196624667015, -0.6205245743816803, 1.0450548178679893, -0.6271828479777417, 0.5349589945756301, -0.5428478636165313, 1.1640424323989678, -0.6585071123490389, 1.5991840286461427, -1.5430748105555767, 0.680352312205495, 0.3102367341284467, 0.29156436603783215, -0.37725556844289587, -1.6122727928003922, 0.3739715225117809, -1.0597044918973997, -0.48300269471635615, -0.07449937815769819, 0.5451774111130272, -0.2400336400358408, 0.8175632076679689, -0.6872115839951263, -0.12555515825458724, -0.4903174561908059, -1.0961750422248056, -1.7271947519602753, -0.7559593378519662, -0.2910839779212015, -1.212319196073662, -0.5071153513307907, 1.5099480061838941, -1.3673540982711188, 1.8933752383512077, 1.829400988564992, -0.09465369610436747, -0.30083381784184, -0.18523010201034, -1.8534999133279937, 0.23989874622077198, 1.512411644782454, 0.4528086712233057, 1.795873343515668, -0.1322059479569473, 1.2750518337176433, -0.18690975625477899, -0.6938422099064185, -0.6650822422678535, 0.9842530617001732, 0.7040548396060906, 0.08386860813765251, 0.10994349474621318], [-1.5042205014171932, 1.3669166873552623, -0.015778627890188662, -0.02777159396323378, -0.7513269104478679, -0.09891957981359706, 0.1070698173821058, -0.6245720891777204, -1.7190105587216298, -1.7325958843615807, -1.0228440962521552, 1.3862578172343762, 0.07591292824336443, 0.17419132616379882, 0.909278048519297, 1.1463108813033496, 1.824829511891101, 0.7775012127822463, 0.40084294678275234, 1.9268829892902262, -1.5758072148307785, 0.05388369209621874, -0.2837493367929353, 0.038464332190453504, 0.17327325291091913, 1.074288432473777, 0.09063492581496224, 1.1420745987374317, 1.9681396192289542, 1.2101235863315296, 0.23774347203883148, -0.09416939503949273, 1.127137067923752, -1.387494421939541, -0.707179502385239, -0.37156859451352786, -1.0995726131979033, -0.1811797920481836, 1.0423038906483888, 1.0238604810837477, -1.064552604477726, 1.7928142302158887, -0.47925710899136975, -0.6035340404296405, -0.22599802650829046, 0.3833548980869107, 1.806294190194359, 1.0753138579154367, 0.09761647456940364, -0.5628757184872828, -0.9522841983902883, 0.873116829822983, 0.14292870956704978, 0.1078733515800856, -1.2071437965445877, 0.600942722552732, -0.7683891647613992, 0.13421697481707873, -0.657423186220774, -0.4502925273410213, -0.26705957052964674, 0.6208131897320308, 0.6026985922779711, -1.207729226517156, 1.197082161736822, 1.2037043211767227, 1.3875727493289443, -0.24041108276881382, -0.27634969725066205, -1.1636333384145183, 0.9692186312023652, 0.5372896004719871, 0.2880572255904134, 0.6751435803976986, 0.320039322514544, 1.9312229768516853, 1.1812687251249234, -0.30814646451762173, 0.26871783236422575, -1.3659230045034638, 0.11423745980765299, 0.13944095227034853, -1.7207299633944833, 0.12632634432069656, 0.05909346490665246, 1.7695398301667313, 0.002651108922391371, 0.5725412407348811, 0.5781530939646031, -0.6349578475496818, 0.13920369287089102, 0.09701347143052763, -1.3224703911465376, 0.42737529501936755, 1.2000139641620728, 0.9485601952257258, -1.1420312699340962, 0.6805691121142744, 1.0010051850596902, -0.24084541712424276], [-1.0308914415012926, 0.369960200106065, -1.6815092816454713, -0.08923278305274807, 0.14839846725460887, 0.09471174993670156, -1.2823286367017117, -0.33058698077840043, -0.1775276448847927, -1.5308433553771668, -0.7000578698348741, 0.36395155190749795, -0.9587075778394518, -0.11514283884263055, 0.8680534165101608, 0.814943339495916, 0.12614905682566468, 1.286877234902836, 0.716497013352803, 0.6577375613716825, -1.5263985705338972, 0.026547565537757972, 0.11186061954971066, 1.0238960553973273, 0.6536350876309374, 0.014308172140686443, 1.3572097136424495, 0.8893670259163773, 1.3289983510722199, 0.39777899820216855, -0.8993128843989, 0.4935302313442792, -0.16213906081276233, 0.07533585323833153, -0.6823812610914435, 0.9482951669979116, -0.18202946020530633, -0.3974135415637685, 1.749362270562407, 0.11353237619892576, 0.043711072575900484, 0.8640132532275222, 0.8521651171457425, -0.4101425569818177, 1.1718507141514154, 0.2238233201867136, 0.6749689264946099, 0.2794147723135211, 0.46447753046982576, 0.4914362047053926, -0.444444684381482, 1.4416863985339328, -0.6753592397014196, 0.7945570573825824, -0.6055687418853273, 0.5407826653493722, 0.7612751262514708, 0.032495377955746724, -0.719061161387369, -0.2796141867958328, -0.14947756203218088, 1.6734203146899373, 1.0959988556976628, -1.033081821486711, -0.4954674701626307, 0.761059327647176, 0.43547440755378586, -0.40980687910912905, 1.1240788472804135, -0.48531950643102295, 1.8408519835760817, 0.06149618977597032, 1.6472610854369512, 1.849883072302186, 0.07955799621105675, 0.22926546699548714, 1.8076211143038, 0.9408589301525737, -0.21922616791088664, -0.7776544066633724, 1.7937374743227692, -0.40782112213423105, -0.9104519680156438, 0.7911668718394134, 1.7999530290832388, 1.21008073221213, 0.29577292335127664, 0.16536874834549856, 0.4456192033224974, -1.140689499413058, -0.1920234697310337, 0.911172799552258, -1.004959996418248, -1.0977620716421055, 1.0174421041750272, -0.501619880918065, -1.4305516159760874, -0.19690016842532657, 0.014945939667770497, 0.9666861600829308], [-1.0504784784008894, 0.2096570610132377, -0.4939543450588668, -0.4741533375056548, 0.5347502840701641, -0.7487071395098264, -1.6935711779641072, -1.0165956094654367, -1.278664503576627, -0.10313890080687704, -0.6835256584023641, 1.9304904898056803, -1.043379070544561, -0.7212137807560037, 1.0243088180110618, 0.021726654666317596, 0.2728678509502504, 0.5648009971206264, 0.3842969809830762, 0.23444376009228077, -1.225598552343035, 1.0187212309628166, -0.3156603988736653, 1.8018887906170102, 1.2511691047234972, 1.7506490791602636, 1.643526424073925, 0.8401596267987399, 1.596445437903538, 0.5639145776873594, -0.47771794583615845, -0.11209466498580117, 0.009061126540879177, -1.171932565945073, -1.3722426316014804, 1.5397756971398633, 0.09228804394824613, -0.6892469849903538, 0.07982651142070274, 1.265113110197946, -0.7471158607542745, 1.1995928580278128, -1.7502980376901625, 0.5528256655369868, 1.2701387866587301, 0.27990424670239306, 1.9687881167659556, 0.35991793259731353, 0.005471633444934815, 1.945509067042044, -1.625727758110572, 0.20314995258266025, 0.10718039370419657, 1.630909615328936, -1.2938400723570582, 0.7745205778752735, -0.8579739549855565, 1.3325030655948142, -0.8577254177861304, -0.766923489971197, -1.4907419188523074, 1.419238676366153, 0.6168734529629278, -0.5701579738739053, 0.5812957668284678, 0.08394798798227765, -0.3379842929092323, -0.7216552425316296, 1.4275442781624532, -1.4471309915994697, 0.6787142385365108, -0.5792050781191826, 0.9802934861408181, 0.6377519287310285, 0.4709809397434894, 0.461542846468076, 1.7301874473704018, 0.07169848956601671, -0.6283372501117652, -0.8104664884850361, 1.7640549352471533, -1.5769788878387625, -0.6802964178082178, 1.2088594398808994, 1.1672307248284528, 0.9362426459249937, 1.798003109006263, -0.18277126029558347, -0.5401766751377486, -1.0890606587767921, -0.6639645769892621, 1.7572309356828089, -0.30977133654233896, -0.25727270939299535, -0.12178107063173366, 1.286678598984287, -1.872532978644433, -0.4640240523914626, -0.5987262794040638, -0.19317243256397562], [-0.8956782075196594, 0.19639623097211503, -0.9802983654002675, -0.9155157330458126, -0.7204754457638793, -0.5513882957059975, -0.8883295485606615, -0.36472121202635277, 0.04085885255336821, -0.5041576127758327, -0.05976435763802074, 1.277619510559714, -0.40559553951585536, -0.6680711736724596, 1.2884112130550314, 0.007518438896291529, 1.0430083497240474, 1.2399971265654537, 0.8890173899538274, 0.038198439395188494, -0.5662754062174358, -0.3374364333989925, -1.5947442363221243, 0.5333894800271639, 1.8454908704509372, 0.10052930338683952, 1.8694833771673052, 0.5473881851078107, 1.5758868626471572, 0.28769063546555634, -1.0977149504921258, -0.832265555038697, 0.6359448498414506, -0.6299432541443852, -0.28987344463609716, -0.3682845721410919, 0.3844535972966958, -0.7105712784708735, 0.48480201101258946, 1.5648379974926643, -0.289731042778652, 1.7829007339264804, -0.8488658551430059, 0.7828450207307394, 0.24647270857544654, 0.5974797380482798, -0.11528623047279812, 0.25639157924419653, -0.30482726629071166, 0.9030377320816543, -0.7561975223970574, 0.8516411573222129, -0.8240737224593961, 0.9408392447047325, -1.21743902288338, -0.5073753456564507, 0.4852107436064669, 0.660055785049663, -0.11460158876358062, -1.058607113455418, -0.8887521434658443, 0.6968170410754652, 1.1995658343178697, -0.18794470596837767, -0.48192509582430754, 0.9745293398193533, -0.3814846379503314, -1.6138499124896453, -0.5057539470498882, -1.9618573470627112, 1.4005291134403182, -1.1907995466132333, 0.4306952556021244, 1.7219439623987691, 1.1725759700434808, 1.3991256631242424, 1.7486545129974789, -0.22158017490919338, 0.43790822373144633, -0.31823870615473165, 1.3982419760124332, -0.9268588773994029, -0.4905110830689694, 1.557370238974168, 1.3705531539955067, 0.09884438029946796, 1.4054065242699652, -0.5844291794237044, -1.3707842423888799, -0.8252226992108302, -0.29947723585262603, -0.11325149151673902, -0.9035604258290362, -0.3844367858539116, -0.21949523700107285, 0.34101142861121425, -0.47716773317659955, -1.077254092085587, -0.41664805935379823, 0.10196433911249003]]
[[0.6250362684441211, -0.06485598751582644, -0.548899025514187, -1.4955627659293826, -1.6428591274746651], [-1.6309238440951832, 1.4535717827826358, 1.810034665551009, 0.8774801869600146, 0.28685256951651666], [-0.3218349893432797, 0.8152207881720197, 1.1853963451142158, 1.5520836709639374, 1.6976441915331155], [-1.4034911054332564, 0.12453387386450099, 0.33062362150221475, 0.6384909558838932, -0.14277123172368994], [-0.0616927937245767, 0.28107582632718414, 1.0185284436637123, 1.1616435274871695, 1.0990167675036449], [0.7601815308576243, -1.214248339773983, -0.21344838216270304, 0.4289017127954765, -0.1654140580939171], [-1.5913993675395834, 1.5756542524245891, 1.6428209245366212, 0.3985017403970069, 1.862834123054788], [0.3557443899934104, -1.8023175901593724, -0.7390218335922072, -1.0040692397234876, -0.9586993505840167], [1.1747432499927344, -0.21216811692336304, -1.6361279359484961, -1.4305844766302833, -0.7778991859182458], [-0.2673279877435683, 1.4414126266107115, 0.4248697623763742, 1.642637335091631, -0.19335591672714744]]
[[-1.694168962849093, 1.557825034381068, 1.5133054367864367, 0.526902262912633, 0.5877604192695454, 0.10485159321479903, 1.7303684611290748, -1.5049817017860143, -1.2672865883573494, 1.2473796555889218], [0.8256217262725838, -1.6652331594662342, -1.140801670774293, -0.3932996444840531, -0.005476593432792748, 0.35430824563419594, -1.6956782821139358, 1.1258555536188195, 1.2315833890933892, -1.3834983631274596]]